#ifndef WEIGHTS_H
#define WEIGHTS_H

// Auto-generated weights for TinyML Sine Wave Predictor

const float W0[1][16] = {
  {-0.40278864, -0.054166496, -0.47251475, 0.5457265, -0.48180446, -0.52160436, 0.54991055, -0.3745124, -0.3359755, -0.35546553, -0.05218649, -0.014483035, -0.05719453, -0.05582717, -0.45937422, 0.5157623},
};

const float B0[16] = {
  0.0, 0.0, 0.0, 0.34472516, 0.0, 0.0, -0.46449426, 0.0, 0.0, 0.0, 0.0, 0.0, 0.0, 1.0311587, 0.0, -1.0358324
};

const float W1[16][16] = {
  {0.14010158, 0.40220812, 0.26412508, -0.31505325, -0.42291734, 0.33696237, -0.4172476, 0.21163347, 0.1628057, 0.08534089, -0.2994719, -0.0605444, 0.18187097, 0.09501657, 0.18861994, -0.38845184},
  {0.039854527, -0.32743132, 0.31458643, -0.21895082, -0.056179076, -0.4252057, -0.29776394, 0.2418944, -0.36081165, 0.14595333, 0.055538356, 0.20355871, 0.2973797, 0.3886917, -0.18216074, -0.29047954},
  {-0.1371122, 0.11101034, -0.08063632, 0.37273774, 0.1856952, 0.12127742, -0.112102, -0.20332561, 0.014659017, -0.3553224, -0.018552035, -0.34269056, -0.3555785, -0.31990483, -0.038889438, 0.3171874},
  {-0.25177926, 0.20203671, -0.3053555, -0.05933836, 0.26941624, 0.044926178, -0.95096284, -0.05367791, -0.20730679, -0.919019, -0.39316997, -0.11464047, 0.19111808, 0.13353649, 0.3508431, 0.06211649},
  {0.4203368, -0.17150077, 0.054871053, 0.09639451, 0.35820767, 0.066428035, 0.2539805, -0.4209558, -0.2227917, -0.37407562, -0.21275498, 0.12686953, -0.41065696, 0.36449286, -0.3608923, 0.3666496},
  {-0.017199486, 0.36296025, 0.3438513, -0.18338153, -0.0623554, -0.04777783, -0.27043056, -0.24936678, -0.30529156, 0.09323344, 0.1685349, -0.12898734, 0.05141306, -0.17199579, 0.3525488, 0.03507346},
  {-0.15738529, -0.40728158, 0.18045923, -0.24436715, 0.109872445, 0.2175363, 0.15107885, 0.2710793, 0.16427632, -0.13649692, -0.31944847, -0.17524013, 0.51459944, -0.10868861, -0.080257766, 0.38919857},
  {0.25163862, 0.03835994, -0.41288906, -0.38191077, -0.1661239, 0.3134608, -0.19960603, -0.19645241, -0.37706673, 0.34272495, -0.3843662, -0.042087466, 0.3465366, -0.15273565, 0.20894691, -0.003680557},
  {0.2915292, 0.05899325, 0.11653033, 0.3123642, 0.39448932, -0.39629126, -0.32860276, -0.061034143, 0.039923877, 0.18630192, -0.02604878, 0.0032729506, 0.19191936, 0.18151382, 0.19988146, 0.40156117},
  {0.3475589, 0.11672595, -0.42094404, 0.35071942, 0.13088545, -0.10755932, -0.35721764, -0.42095786, -0.38248077, 0.05005333, 0.17934242, -0.255309, -0.026651978, -0.23989518, -0.32476416, -0.26893044},
  {-0.4154971, -0.23659238, -0.08154172, -0.110159665, 0.34463063, 0.046132445, 0.34211585, -0.08794826, 0.13826463, 0.4027808, 0.42136112, 0.17288062, -0.38496807, 0.19419357, 0.14215174, -0.020481855},
  {-0.20654137, -0.35824764, -0.34971398, 0.28736994, -0.15380138, -0.29543167, 0.2661722, 0.17817882, 0.112648934, 0.34214494, 0.4026856, 0.3620853, 0.35004672, -0.31159642, 0.4278473, -0.37408304},
  {0.17925498, -0.14716482, 0.033664852, 0.020958185, 0.19467607, 0.26296225, 0.40145585, -0.11537063, -0.22063556, 0.41670838, -0.35851172, 0.06704822, -0.11354539, 0.0073156655, -0.15996698, -0.085743934},
  {-0.16933814, 0.9857187, -0.37768492, -0.28919196, -0.6201945, 0.8960649, 0.5545541, -0.4007127, 0.28824836, 1.122221, 0.18743213, 0.7418885, -0.48930565, 1.0926008, 0.22347668, 0.09400963},
  {-0.14170876, -0.31120113, -0.37072513, 0.3619981, -0.31773406, -0.26570308, -0.118897855, -0.39957434, 0.14621028, -0.05362165, -0.38455635, 0.25803176, -0.2235982, -0.08348155, -0.19405636, 0.39847782},
  {0.050836593, -0.62874335, -0.2226927, 0.047044963, -0.055051364, -0.2306785, 0.028161675, 0.54381305, 0.43481117, 0.30130112, -0.3560501, -0.3773827, 0.17800176, -0.4966552, -0.44040453, 0.066251904},
};

const float B1[16] = {
  0.0, 0.6588621, 0.0, 0.0, -0.2863962, 0.26230726, 0.49805948, -0.44211182, 0.036062438, 0.62884164, -0.12949547, 0.55071515, -0.42848766, 0.45249218, 0.34314632, 0.074527614
};

const float W2[16][1] = {
  {0.38459504},
  {1.4995104},
  {-0.18805745},
  {-0.26815206},
  {0.61628854},
  {-0.23666812},
  {-1.1960121},
  {0.50005215},
  {0.03431152},
  {-0.8904182},
  {0.46337438},
  {1.8297163},
  {0.26098347},
  {-0.967937},
  {-0.8129097},
  {-0.033217482},
};

const float B2[1] = {
  -0.32108054
};

#endif // WEIGHTS_H
